{
    "version": 5,
    "units": "metal",
    "models": [
        {
            "symbol": "Cu",
            "basis": {
                "type": "merge",
                "basis": [
                    {
                        "type": "chebyshev",
                        "nmax": 6,
                        "rcut": 7.0,
                        "wtype": "exfull"
                    },
                    {
                        "type": "spherical_chebyshev",
                        "nmax": 5,
                        "lmax": 6,
                        "l3max": 2,
                        "l4max": 0,
                        "rcut": 5.0,
                        "wtype": "exfull",
                        "post_fuse": true,
                        "post_fuse_size": 6,
                        "post_fuse_scale": 0.408248290463863,
                        "post_fuse_weight": [
                            0.40190348559586525,
                            -0.3657355113314893,
                            -0.8760049289492703,
                            0.7369397031313965,
                            -0.6128828515948165,
                            0.1690994408510449,
                            -0.9914199697731252,
                            -0.0790896433562434,
                            0.6997164033106826,
                            0.9936004781280378,
                            0.27127820059334645,
                            0.7693694586469344,
                            -0.05910290530335581,
                            1.5669878137141995,
                            -0.7685297992240328,
                            -1.2356188784854374,
                            -0.5992343845565483,
                            -0.553080227194225,
                            0.9748429967204592,
                            -1.3260127657267224,
                            0.6720547880100096,
                            -0.8847639573602806,
                            0.737860835810415,
                            0.14593952827580686,
                            0.4033760596250734,
                            1.8169069818679489,
                            -0.13737488129976072,
                            0.055927037460902836,
                            -0.4494285725812754,
                            -0.36814650000382826,
                            -1.3237182324747143,
                            0.4657210590451812,
                            0.34551783403303254,
                            0.07345509276609943,
                            0.8129460172144897,
                            -0.23590053380114767
                        ]
                    }
                ]
            },
            "norm_mu_eng": 0.10660606062499989,
            "norm_sigma_eng": 0.6622998156031974,
            "ref_eng": -3.51,
            "norm_mu": [
                10.282701082700196,
                0.5558956050977223,
                -8.701064427167818,
                -1.7379178314616945,
                4.842539338212817,
                2.7085476854847337,
                -0.5138299695607582,
                4.85297348901141,
                0.09824283092771649,
                0.020664042012785204,
                0.022867497630308285,
                0.030868093852767453,
                0.0783547903143244,
                0.43536406037482506,
                6.992861800620223E-5,
                -6.446258545000215E-5,
                9.500877880882971,
                0.2500300393439122,
                0.11634123699913329,
                0.16181178844922306,
                0.4153217494806185,
                0.6539558356545097,
                2.811490390374262,
                -4.2326120414404674E-4,
                7.491629084579607E-4,
                3.871404594489923,
                0.11968695147706705,
                0.049990498774591725,
                0.054589221272401914,
                0.08435569898582551,
                0.11000542707848832,
                0.49448365994050963,
                -1.1287681405359898E-4,
                -2.1359508390048355E-5,
                11.375974528261143,
                0.28888234818439795,
                0.1353994803192266,
                0.1808155442852694,
                0.4497148868422518,
                0.6662449011158953,
                2.8088037752520663,
                2.36444906902973E-4,
                -4.5564967699798515E-4,
                2.8816714586112426,
                0.061659801467429755,
                0.01460718178699751,
                0.016353610190581656,
                0.023200483319139778,
                0.05557302344450881,
                0.3053386047947842,
                3.499248233418923E-5,
                -4.10028011202694E-5,
                2.7276418867477457,
                0.07327798651742208,
                0.044174551276053825,
                0.050152718595710015,
                0.10069610495701344,
                0.11603626469589254,
                0.4077770258105773,
                1.4854453421142148E-4,
                -1.8076396237973357E-4
            ],
            "norm_sigma": [
                3.71546893428015,
                0.2992844296543069,
                3.0604008159985114,
                0.7238923976774883,
                1.5787572863856052,
                0.8751393261334712,
                0.6415739951384064,
                3.522135184002386,
                0.14729596316903226,
                0.053354915753935216,
                0.03951733707894192,
                0.05466108863555826,
                0.0776299985314495,
                0.20872669143852482,
                0.0017362183591136116,
                0.0011877856428806242,
                6.430333492891586,
                0.3416011232554042,
                0.2035929953180918,
                0.20002537127720937,
                0.40504861510148177,
                0.7425920595989852,
                2.0997146357840424,
                0.010379389461608924,
                0.006383152338471382,
                1.9155533067339094,
                0.13962382362521578,
                0.1360418394950607,
                0.12059582192335001,
                0.3726233900607857,
                0.36844526715217063,
                0.4986067554694357,
                0.005523811255811383,
                0.0026436791774778505,
                10.246339062959915,
                0.39079433335774555,
                0.20525538410311067,
                0.24584337327897524,
                0.5176747186039126,
                1.0470935817478977,
                2.6745220367005595,
                0.01337879709566044,
                0.009309795062901022,
                1.9293522326702626,
                0.08968941654368291,
                0.03490732904024303,
                0.02426316427005364,
                0.032965070910282515,
                0.0551587889465928,
                0.15852442069723766,
                9.179834112580644E-4,
                6.156428348637448E-4,
                7.415532922659066,
                0.17558157400914282,
                0.12942001311088341,
                0.10882555141831811,
                0.4881943582988487,
                0.4687288411233306,
                1.3742974132815529,
                0.0054767078915634445,
                0.002802533758571768
            ],
            "nn": {
                "type": "feed_forward",
                "input_dim": 61,
                "hidden_dims": [
                    48,
                    32,
                    24
                ],
                "hidden_weights": [
                    [
                        [
                            0.0841452145419297,
                            0.08453665888827078,
                            0.33136136710857916,
                            0.21765544846706084,
                            -0.06769652945603889,
                            0.12550267715376867,
                            0.1508928821041572,
                            -0.19150185954431315,
                            0.03870839593512026,
                            0.36782371278483206,
                            -0.15570227768755882,
                            -0.13371559626989574,
                            -0.13548917011215028,
                            0.12155456019786541,
                            0.032073665365039354,
                            -0.04947784592545171,
                            -0.24748990580323263,
                            -0.19644351741595997,
                            0.08383385037362694,
                            0.04240738902485276,
                            0.016186499744296555,
                            0.0029909720537404125,
                            -0.3970281198276705,
                            0.04664296307074003,
                            -0.17638342358411588,
                            -0.014958405002311569,
                            -0.2572705465605197,
                            0.32396148077503956,
                            0.1426298941868081,
                            0.09694336423252889,
                            -0.10361308241280622,
                            0.08042502518018418,
                            -0.1000526404565609,
                            0.1804197140023882,
                            -0.3224992815614764,
                            0.21364434911540303,
                            0.04877777259675376,
                            0.016046859343090913,
                            0.1652720919367241,
                            0.03873059733358376,
                            -0.127274285100807,
                            0.2731763804365925,
                            0.22064651523012574,
                            0.03298354239995639,
                            -0.0671907374194183,
                            0.016420541159517514,
                            0.08287608647644823,
                            0.09118178303071381,
                            0.30971127197741094,
                            -0.10062951255157758,
                            -0.029132473221126033,
                            0.1263324977841625,
                            -0.12444375748423772,
                            0.168084816473532,
                            0.0127811900951733,
                            -0.1194549854061663,
                            0.14490387831737966,
                            -0.1795580743400781,
                            0.0962404313605982,
                            -0.16029713834976148,
                            0.007595567610538191
                        ],
                        [
                            -0.2901909303861342,
                            0.18048665163428965,
                            0.4056470227341251,
                            0.08624448211729988,
                            -0.07848889422017537,
                            -0.2334322662265611,
                            -0.06787893240501594,
                            0.3885666745350832,
                            0.08467264223860474,
                            -0.22018650401417456,
                            -0.0747840716746353,
                            -0.13410159022591106,
                            0.019076197298758306,
                            -0.08231857601865837,
                            0.2193898997884099,
                            -0.16531379495437465,
                            -0.010841060196660802,
                            0.06174700741604266,
                            -0.14887707273854947,
                            -0.22696599922940885,
                            0.09680923659578328,
                            -0.2363534727620149,
                            0.2967200435709092,
                            0.0998913785409924,
                            -0.21181849805700664,
                            -0.3718710635212283,
                            0.29411847191015483,
                            0.365689281031309,
                            0.37665929706548157,
                            0.4572745879263406,
                            0.31657666983269517,
                            0.056809417050167,
                            0.17848850106752298,
                            0.04921874438768733,
                            -0.23775969379767703,
                            -0.5031645929107224,
                            -0.30926563498362347,
                            -0.18663465635812604,
                            -0.09504460750492158,
                            0.1785610155076806,
                            -0.08351207831716918,
                            -0.07827164451594722,
                            -0.047361888508657815,
                            -0.2324308804808512,
                            0.1916829744722175,
                            0.43971194401084146,
                            0.37328942437081775,
                            0.09983487119543094,
                            0.008773409242027116,
                            -0.34002099172981787,
                            -0.070522150643866,
                            -0.08344694366989557,
                            0.3303593660668114,
                            0.23919252815565833,
                            0.3705055350240285,
                            0.1926755030892992,
                            0.33133615819741274,
                            0.11900649111471374,
                            0.030280110579754257,
                            -0.08730869677015651,
                            0.19765464389591092
                        ],
                        [
                            0.42107573995985076,
                            0.2592056126797928,
                            -0.022412730122147794,
                            0.04401596197447708,
                            0.36908522193118054,
                            -0.019117541177561984,
                            0.20930705790792475,
                            -0.27951334404845196,
                            0.03542826632546096,
                            0.05662441425255607,
                            0.013190331010281258,
                            -0.09666319161970112,
                            0.10197969792435113,
                            -0.21932760379758287,
                            0.027670358153499493,
                            -0.16544268492719882,
                            -0.08875292683326241,
                            -0.4036080259049388,
                            -0.12087673262768688,
                            0.13920622309232586,
                            0.17057519294166884,
                            0.042407847776014314,
                            0.3193526879128035,
                            0.018105610586671952,
                            0.1260038495170447,
                            -0.10931007008804108,
                            6.979141745565879E-4,
                            -0.1403530192202809,
                            -0.2249586320004644,
                            -0.4185978750159599,
                            0.16502385570146044,
                            0.17186433566260872,
                            0.211864533711508,
                            0.11843491021986453,
                            0.1436653483613141,
                            -0.19494188691601602,
                            0.07732252998684272,
                            -0.2339752276060772,
                            -0.10051596822302358,
                            -0.14518810543055072,
                            0.043732513233967325,
                            -0.002681280419236783,
                            -0.18595570878143244,
                            0.17769483723101642,
                            -0.2692597373628711,
                            -0.18239993157705597,
                            -0.29274855944151873,
                            0.18987023046545054,
                            -0.2626603345295786,
                            -0.3397567394718644,
                            -0.002538069709165741,
                            -0.3039071277946201,
                            -0.2505376707169083,
                            -0.024306655723435704,
                            0.1779528163644123,
                            0.05225466131231835,
                            -0.4152405570711849,
                            -0.18168486880486134,
                            0.10334921602471428,
                            -0.14884536076959679,
                            0.14041945793169863
                        ],
                        [
                            0.15069897917503894,
                            0.04370547978406539,
                            0.12661183417793997,
                            -0.3159170162192345,
                            -0.16246679183406043,
                            -0.2480022072959799,
                            0.09904413106823405,
                            -0.21208938553973844,
                            0.31691473965539907,
                            0.008957870072041175,
                            0.07026912611563405,
                            0.03996488575853999,
                            -0.09828464525614046,
                            0.14344633823216885,
                            -0.007577352393186849,
                            0.009188958489010652,
                            0.1994142346402012,
                            0.04269172236101783,
                            -0.025628482540726017,
                            -0.34419259608539415,
                            0.25511839245066387,
                            -0.17542774455658044,
                            -0.21398787747843145,
                            0.026756454001197104,
                            0.13444147396706638,
                            -0.460942237800018,
                            0.06953481813258758,
                            -0.066137598634081,
                            0.2861004145193071,
                            -0.3601940418408098,
                            -0.17834903171455405,
                            0.15873540980585585,
                            0.0021840973039514537,
                            0.17286304902632715,
                            0.14195875514637843,
                            0.27657989528740856,
                            0.027363742529067855,
                            0.4002250516146655,
                            -0.4784540213044031,
                            -0.20783604756148216,
                            -0.41256095905739487,
                            0.011116165428260083,
                            -0.03250001386341383,
                            -0.2624454901519301,
                            0.15399687768207188,
                            -0.014871764335169435,
                            0.1550583062332299,
                            0.21076383672212273,
                            -0.1761582415003827,
                            -0.08816209423611394,
                            -0.17958672414581553,
                            0.06262725480839733,
                            0.14541674368257929,
                            0.31416387027270604,
                            0.002340485607747365,
                            0.03912220430630746,
                            -0.08656268493859151,
                            0.3095582986661115,
                            0.2083544283421997,
                            -0.004209903054753875,
                            -0.07911101743583099
                        ],
                        [
                            -0.32686260459146754,
                            0.3875361995242246,
                            0.3572885472217878,
                            -0.2618736837758916,
                            0.1492948729704009,
                            0.03592882207470932,
                            0.006296333088020995,
                            0.1039070404481422,
                            0.22071063990495066,
                            -0.4296912818947584,
                            0.21125600109414067,
                            0.15138370944418272,
                            -0.2644645081816899,
                            -0.017985954715984423,
                            -0.0666849748424551,
                            0.43128128907721786,
                            -0.06875842726671448,
                            -0.05320906198182844,
                            0.277693935524348,
                            0.40524993089939265,
                            -0.19128261366336954,
                            0.21870763639876378,
                            -0.14911973442854995,
                            -0.04444991715873448,
                            -0.002869862682779744,
                            0.30993385852209493,
                            -0.017660873125531707,
                            0.09097593626748024,
                            -0.05574597230823789,
                            -0.20356492033296233,
                            -0.168903215513226,
                            -0.16771322385822168,
                            -0.2783015770413244,
                            -0.3088674419483802,
                            0.19416774420736888,
                            -0.24846036848508463,
                            -0.027806856997628315,
                            -0.18025572226675715,
                            -0.12138408153353923,
                            -0.1219782323354681,
                            0.0642217697441327,
                            -0.09201512691099602,
                            -0.29033322618957985,
                            -0.03718756207431,
                            -0.05492328447798452,
                            -0.21232027554461383,
                            0.24395495379350318,
                            0.06466004218308348,
                            0.2374154462762021,
                            0.3030288519445374,
                            0.23778540195834866,
                            0.343294373918692,
                            0.015772842988207053,
                            0.03698567647267785,
                            -0.3873631332101032,
                            0.19106053243579815,
                            -0.344288379698852,
                            0.086056953759502,
                            -0.28165659084246014,
                            -0.13853219113920254,
                            0.22640199141602127
                        ],
                        [
                            -0.05261950200802038,
                            -0.2859445488156394,
                            0.020586546205067186,
                            -0.055128468604022304,
                            0.27606641580007585,
                            0.14004551237983828,
                            -0.3420916191904039,
                            0.18301208595924348,
                            0.355409347529504,
                            0.0692286730027828,
                            -0.10080368444712272,
                            -0.09003962919895109,
                            0.11586310473730613,
                            -0.09545058267593352,
                            -0.05401731239067277,
                            0.060725375833923574,
                            0.5356568898973922,
                            0.10416580273513441,
                            0.09380394711830774,
                            -0.09604851563389721,
                            -0.0836604416169416,
                            -0.1883057655015447,
                            -0.20890500272176,
                            0.07350117651077927,
                            -0.07116990282811318,
                            0.4134748110945114,
                            0.11081453581681328,
                            -0.079514103965335,
                            0.26624649982330106,
                            0.25484662960757537,
                            0.38114341952135194,
                            0.3683837680249997,
                            -0.062205143837540756,
                            0.08096054108996084,
                            0.1860390357466556,
                            0.06577490834043259,
                            0.20371031033957446,
                            0.21455592402819926,
                            0.057659215254424336,
                            0.21152833026662163,
                            0.18570768811901917,
                            -0.03265876393707001,
                            0.08571315657309335,
                            0.20746384091213177,
                            -0.0366544338552546,
                            0.0029553660860794553,
                            -0.009559538483347728,
                            0.050967470879942196,
                            0.12977602020831983,
                            0.43603454847670237,
                            0.23364761486103022,
                            -0.18850660794257876,
                            -0.039380236472864795,
                            0.08765969692877179,
                            -9.123714597533605E-4,
                            0.026986616608716967,
                            0.09755477518051338,
                            0.023706611043538505,
                            0.16304565430713164,
                            -0.04622922115148975,
                            -0.16333517442773893
                        ],
                        [
                            0.043844611652628804,
                            -0.28314311968339806,
                            0.08943149718882297,
                            0.07596206893132945,
                            -0.19452398496632156,
                            -0.03111592464257236,
                            -0.042940834284304535,
                            0.01116467994304039,
                            0.23472014376006226,
                            -0.19016428430388158,
                            -0.2051444950743134,
                            -0.06127267148382171,
                            -0.024354153832681056,
                            -0.2856709395195605,
                            0.13127985163861033,
                            0.29220794588222526,
                            -0.25566017094586596,
                            -0.32280278973839743,
                            0.029662402464034277,
                            -0.13880108820740475,
                            0.17864865807384533,
                            0.005016446256431711,
                            0.21679717986236102,
                            -0.006990724208623689,
                            0.41270379955044373,
                            0.3301551812295506,
                            -0.16868927158489608,
                            -0.43053196593317783,
                            0.1799411164629987,
                            -0.3646019021328123,
                            0.03450750969393668,
                            -0.11412575641280184,
                            0.2085222578458653,
                            -0.02812117234842573,
                            0.14922129444153096,
                            -0.0734719920596213,
                            0.0028209220484151833,
                            0.27652334835734443,
                            -0.23890255448017705,
                            -0.0388627262463112,
                            0.11553277136806811,
                            0.11894258804937284,
                            0.16941285671827824,
                            -0.06871408848845659,
                            -0.30690037452135704,
                            0.07171259318862597,
                            0.16163183033845002,
                            0.06809524114143271,
                            0.08733718589430178,
                            0.06282325174134414,
                            0.24511502502653645,
                            -0.07762054309753735,
                            -0.12454151381069282,
                            0.10024050584440233,
                            -0.12245216154863736,
                            0.016965337987314845,
                            -0.0937083474256769,
                            -0.231923108313962,
                            0.1131028985707728,
                            -0.1594031404002937,
                            0.10224202534208147
                        ],
                        [
                            0.2453511110641443,
                            -0.1198713450443359,
                            -0.24360226379875696,
                            0.1958973680400494,
                            -0.20031478588442458,
                            -0.052115448319673796,
                            0.12304983949074864,
                            -0.34472929398584656,
                            -0.12369695999672764,
                            -0.007208172302704449,
                            0.16119858917321023,
                            0.1672914499711076,
                            0.08785188616912999,
                            -7.807942135023021E-4,
                            -0.11447525638555549,
                            -0.34310929003894913,
                            0.044392986785479975,
                            0.397025637139276,
                            0.2700252237265718,
                            0.2017460321608707,
                            0.01282151067143944,
                            0.1385682215705968,
                            -0.04037838547096785,
                            -0.02163038885237186,
                            0.1798714924458991,
                            -0.6329378965057807,
                            0.22060547053068832,
                            0.42839955637827287,
                            0.04241083122068573,
                            0.3121719425403226,
                            0.2551137697271579,
                            -0.24377040820689067,
                            0.027106682226156,
                            -0.09222359072511703,
                            -0.011554401105366825,
                            -0.02910148015666587,
                            -0.009807583486667834,
                            0.05058148368204375,
                            -0.11951550923255588,
                            0.29342992361142145,
                            -0.17130903535034092,
                            0.14299926560052176,
                            0.26411740638400893,
                            -0.008924446155343414,
                            0.42678039562494413,
                            0.04537905471124618,
                            0.05781046005976663,
                            0.04349019686902171,
                            0.24152984633941926,
                            -0.41382310053272825,
                            0.2960620936409574,
                            0.12588942025937294,
                            0.31217270236701167,
                            -0.08996184995410793,
                            -0.013633813784810378,
                            0.037439536126364296,
                            0.5813588124156956,
                            0.0987723449114235,
                            0.14003018451716367,
                            0.11551540682893799,
                            0.27270357994402733
                        ],
                        [
                            0.06727462078374373,
                            0.3491547684687125,
                            0.08759838274244276,
                            -0.1573155183004148,
                            -0.38821914903446764,
                            -0.17732176314815315,
                            -0.158380953524104,
                            0.07616376843605432,
                            -0.12935247197490707,
                            -0.03442723299056603,
                            0.08201991238525971,
                            -0.12990387767324268,
                            -0.023664931221360926,
                            -0.14116943278297683,
                            0.06097481835261446,
                            0.2734533166889855,
                            0.36009828220020706,
                            0.16346523551467512,
                            0.10869119945860127,
                            -0.0029581578889022347,
                            0.18010161845554384,
                            0.15530539766854015,
                            0.10340417638221788,
                            -0.15596724363341302,
                            0.05034990233478392,
                            -0.5928222080242715,
                            0.08673558073860223,
                            0.05648618252827468,
                            -0.16145283939061966,
                            0.5148709251645598,
                            0.37857916353135324,
                            -0.15782088450021323,
                            -0.14489126577352374,
                            0.23110114043411856,
                            -0.08691066711597203,
                            0.485063392103446,
                            -0.040680810355844296,
                            -0.07740897638600197,
                            -0.3247764280265736,
                            -0.03857746159088975,
                            -0.12442146654524197,
                            -0.1039229628329726,
                            0.126518422554311,
                            -0.011260026844166642,
                            0.17190174333858033,
                            -0.0031106856268738395,
                            -0.015041921594575453,
                            0.20212179335592548,
                            0.12717592960086851,
                            -0.20549448153745792,
                            0.21086645392774875,
                            -0.2576744942199926,
                            0.3924999977586075,
                            -0.22704938528471877,
                            0.2751849408208937,
                            0.10353023265204717,
                            0.42251642796372274,
                            0.06946137226836367,
                            0.5785375162023465,
                            -0.13448106131670728,
                            0.09215460127800575
                        ],
                        [
                            -0.08017118685435867,
                            0.1445009390693842,
                            0.05528140507179119,
                            0.0955120010441008,
                            0.5876875400434618,
                            0.06587548604861958,
                            0.05533139139447528,
                            -0.17804137035902293,
                            0.0339040290545902,
                            -0.1684256787543818,
                            0.1195256941412549,
                            0.2828713042381636,
                            -0.1762685644975133,
                            -0.00449270320704261,
                            -0.2415189461805199,
                            0.11659952313841972,
                            -0.13331103656379403,
                            -0.3357574594620523,
                            0.18170843729190791,
                            -0.08166039687290609,
                            -0.011386415914224781,
                            0.2779544488626626,
                            0.2704169457479285,
                            0.01094266569766472,
                            0.14823356579372163,
                            0.2602302834538507,
                            -0.3422317678291452,
                            -0.025108327108736166,
                            -0.32429195691906515,
                            -0.055066100124878704,
                            0.12216018457462408,
                            -0.2881391645241087,
                            -0.059310438591917695,
                            0.0740771641445198,
                            0.023059448379713954,
                            -0.4668835771418712,
                            0.2932266469208214,
                            -0.2576159851347749,
                            -0.3907302868188111,
                            0.0019726310483254876,
                            -0.03338215001952441,
                            0.1886873575325796,
                            -0.13531933780925726,
                            -0.014681308163274658,
                            -0.0763966230011564,
                            0.1546336206508741,
                            0.15492569419377947,
                            -0.09753390328240256,
                            0.08102651740158542,
                            0.2222546927425239,
                            -0.056744171517467024,
                            -0.32437400187851084,
                            -0.33183227077085087,
                            -0.28190854155104217,
                            -0.37728386547519077,
                            -0.3787765416529871,
                            0.031170261793865013,
                            0.05693750385635498,
                            -0.3521624308726339,
                            -0.044982877064032915,
                            0.04877092229549047
                        ],
                        [
                            0.16225012140091236,
                            0.014706584136268748,
                            0.25467299551550027,
                            0.026373603037055004,
                            0.11448235238718893,
                            -0.0959007569430155,
                            -0.11098707467836069,
                            -0.002896070567373317,
                            -0.21317069187541546,
                            0.01424251898081671,
                            0.17044074982421129,
                            0.2750027523627672,
                            0.2821392148915586,
                            0.1876918181706556,
                            0.13655137070305517,
                            -0.20807439361911906,
                            0.08699556097357909,
                            0.2169786798151141,
                            -0.057227381598786695,
                            0.014855776011848055,
                            -0.003678449714220102,
                            0.37130263071682607,
                            -0.2811279209135449,
                            0.2861130583675218,
                            -0.047222216636934475,
                            0.31934974113068143,
                            -0.16101251900207483,
                            0.033058182882985156,
                            -0.2810003681798446,
                            -0.1256408572931526,
                            -0.03545037510511996,
                            0.10770711287581237,
                            -0.16430548959320407,
                            0.04902650160931238,
                            -0.24592678503727164,
                            0.01948191269077449,
                            -0.10139225278800051,
                            -0.0860242801042802,
                            -0.11692501603813249,
                            -0.008067178326600071,
                            -0.0049552624155462304,
                            0.244545320644726,
                            0.23858517692323036,
                            0.015102375199046935,
                            -0.011137239128528867,
                            0.23098341087445606,
                            0.33516839199622034,
                            -0.13850083549035413,
                            0.15652047371817554,
                            0.20085349648996467,
                            -0.021292706022724334,
                            0.2580440380097001,
                            -0.01746111907899734,
                            0.010596514588855802,
                            0.10362641530492925,
                            0.08801986123289322,
                            -0.16848651390165909,
                            -0.10025239189014805,
                            0.15026130066639282,
                            -0.015628637830553665,
                            0.10142202742614584
                        ],
                        [
                            -0.1297151480660895,
                            0.06781290293290158,
                            -0.2266211110660891,
                            -0.052672341224355,
                            -0.11349250695111869,
                            0.0712550248432268,
                            0.06018345496124075,
                            0.39825730715632107,
                            -0.04453802689146759,
                            -0.3084253921000154,
                            0.04461770510056883,
                            0.10302018510654438,
                            -0.25996363659868293,
                            -0.10848449605246809,
                            -0.2002103912146123,
                            0.034072538989872905,
                            0.4172862957300933,
                            -0.009735467764389546,
                            0.037210190874352976,
                            0.055699190027895605,
                            0.2578269483659841,
                            0.1780911656183406,
                            0.05055009831556817,
                            0.25548492399443296,
                            -0.22897407934981623,
                            -0.18838265751263183,
                            0.01341503353995933,
                            0.2332766100257214,
                            -0.2096645965715749,
                            -0.10514395328079985,
                            0.1565594950087816,
                            0.3393315591568198,
                            0.18874058373149627,
                            -0.053165822736167254,
                            0.40218344504613435,
                            -0.047728146296192826,
                            0.23605771522725763,
                            -0.06626958693555021,
                            -0.06966715775657685,
                            -0.14823887933444382,
                            -0.018967448538667518,
                            0.14923509175025865,
                            0.028547340114416016,
                            0.5478344718122883,
                            0.3971363508137958,
                            0.4786793067240578,
                            0.11274678588321846,
                            -0.2603355144600383,
                            -0.04610161475771044,
                            0.10847160270788662,
                            0.3312633818996441,
                            -0.2359649253421193,
                            0.014744673387273005,
                            0.05143858308898291,
                            -0.2756717850003425,
                            -0.015108440865076251,
                            0.21312100097153375,
                            0.11878277203157546,
                            -0.05217448320653653,
                            0.09362670649156633,
                            0.15311152409544473
                        ],
                        [
                            0.20667886576049035,
                            0.10982844495609367,
                            0.21982604398860647,
                            0.15598340447591671,
                            0.05818350845573359,
                            -0.39260459903369826,
                            0.18919934285614196,
                            0.30966664204077626,
                            0.1403673826879225,
                            -0.06382786434519906,
                            -0.20435447431282225,
                            -0.12176279258310899,
                            0.003771791127950372,
                            0.22731420511179481,
                            0.2533060600501285,
                            0.171545667803887,
                            -0.010435216009783959,
                            0.40548438297901024,
                            -0.26589518581108634,
                            0.0726922221898662,
                            0.019397513456621947,
                            -0.09870715449481963,
                            -0.21316979572512101,
                            -0.22059431981012478,
                            0.19457509520450908,
                            0.18950563144120006,
                            -0.17599496914014823,
                            0.11674059555216049,
                            0.1798557880462253,
                            0.10887188477248923,
                            0.19202727994524407,
                            0.049334292262058516,
                            0.18631254306550027,
                            -0.032172394149861054,
                            0.3191824942288587,
                            0.21078430695613443,
                            0.15942669766234388,
                            0.1848412016464978,
                            0.05453436382012762,
                            -0.05019183528545705,
                            -0.28051968241474556,
                            0.25020900664503765,
                            0.11089916586344445,
                            -0.15382345114008764,
                            -0.09523691087537092,
                            0.19111754320166988,
                            -0.06703212493422891,
                            0.32204183439462747,
                            -0.008805293983426225,
                            -0.15753373805737844,
                            -0.032491864281375446,
                            -0.1362306660436085,
                            0.40833786072857436,
                            0.0556449316632026,
                            -0.11984536163719871,
                            -0.18914855797727573,
                            -0.07171145137459752,
                            0.003281555804236695,
                            0.03495171555761391,
                            0.12569771895048026,
                            -0.0186506469473883
                        ],
                        [
                            -0.12872759270895853,
                            0.14767637104199377,
                            0.06934635012318427,
                            0.02377587515233313,
                            0.1404385038013737,
                            -0.08432355423390661,
                            0.1577527351215852,
                            -0.19708160782654732,
                            -0.5484768718561165,
                            -0.20773084544477746,
                            -0.04275842982198058,
                            0.1310471666892101,
                            -0.05160323312558515,
                            0.034057507602724225,
                            0.13690213700569503,
                            -0.3535567295914287,
                            0.39670010971068553,
                            -0.2986777633730147,
                            -0.06298747792323087,
                            -0.1848621696509467,
                            0.16666681323384339,
                            0.1879455390443583,
                            -0.10885884419295469,
                            -0.09708604040947655,
                            0.14019295854886302,
                            -0.39297121582948064,
                            -0.11322314046081633,
                            -0.06930483851107343,
                            0.037463287843762814,
                            0.029634564201384234,
                            -0.009495475877917237,
                            0.19028863119377046,
                            -0.2191906810300573,
                            0.06598321953268606,
                            -0.20031264253473438,
                            0.00975609035306452,
                            0.11326737977795505,
                            0.372618303189039,
                            -0.026143661580659155,
                            0.22672523487739502,
                            0.16938604364564777,
                            0.052462076866344756,
                            -0.11134965637751235,
                            0.3503165727019208,
                            0.075063620478689,
                            -0.015768339635624653,
                            -0.10934784436431594,
                            -0.2970795848197489,
                            0.23969327814265157,
                            0.03950768470115985,
                            -0.05125268362078516,
                            0.27528709623975745,
                            0.029794578441092436,
                            0.15635918302889865,
                            0.0427122943586131,
                            0.23199519348033437,
                            0.11138605442548752,
                            -0.030900239196707792,
                            0.335711120132288,
                            -0.23419827061063506,
                            -0.11980048799914363
                        ],
                        [
                            -0.2184364567984812,
                            0.008714655140658589,
                            0.36427042934970527,
                            0.07358053439486933,
                            -0.6438009344162198,
                            -0.14480116578964675,
                            0.011939534798918579,
                            -0.04194472410190256,
                            -0.23848959400811406,
                            -0.1054575610681761,
                            -0.09737115612031494,
                            0.08856480926586414,
                            -0.0476648818679612,
                            0.004582223371506291,
                            0.2222694865614925,
                            0.2528080232335103,
                            0.33248308818786804,
                            0.041792661259954074,
                            0.189575631052073,
                            -0.2708672866313518,
                            -0.1851567718931694,
                            0.09290822200329454,
                            -0.12158897263114972,
                            0.0236385391236585,
                            0.06275560625148463,
                            0.17091986687352353,
                            0.02372143719967107,
                            -0.09877707040220164,
                            0.10144544048188334,
                            -0.20750756274132523,
                            -0.30026352391019995,
                            0.29647814694186014,
                            -0.1313555513857867,
                            -0.09282892198702918,
                            -0.17919989024952113,
                            0.09543119730190927,
                            -0.28672490123258043,
                            0.02474183649434991,
                            -0.18592033136470598,
                            0.0726455167460645,
                            0.12230731684074568,
                            0.18117751748271674,
                            0.1158718844993868,
                            -0.23530446670356786,
                            0.3082935935260358,
                            0.21191312454252267,
                            -0.035972008138232286,
                            0.19074770640358554,
                            0.21911317128365793,
                            0.2523514645002431,
                            -0.17610176581428022,
                            0.14254802145399872,
                            0.2887640394925477,
                            -0.12068541317298294,
                            0.30630249737520737,
                            0.2906280392250958,
                            0.009822781095619688,
                            0.1474079477592628,
                            0.007832738053634046,
                            -0.041840284635150285,
                            0.0561395939601224
                        ],
                        [
                            -0.13446496524662988,
                            -0.288821647351522,
                            0.27197838269895225,
                            -0.1411621831954742,
                            -0.02481194531142522,
                            0.12891242943058764,
                            0.20821775979424215,
                            -0.2710296529823122,
                            0.15227036828347842,
                            -0.15015525385011128,
                            0.24503808664969184,
                            -0.1439617708069581,
                            -0.015243594809841282,
                            -0.19629449062801,
                            0.07775703284167255,
                            -0.019852944791172267,
                            -0.016287047706156348,
                            -0.22154355443385418,
                            -0.0450524513708338,
                            -0.062477767764026346,
                            -0.047809243578322565,
                            -0.038457425680589144,
                            -0.13335290159046262,
                            -0.17532363732702433,
                            0.2650844141415962,
                            -0.2698325559014269,
                            0.09386473201119518,
                            -0.5435559868417549,
                            -0.33796936182689813,
                            -0.7176390287729758,
                            -0.1925279116640424,
                            0.0681370617897761,
                            -0.05634508941014873,
                            -0.22191868939468185,
                            0.33189467909971127,
                            0.052454143067974315,
                            -0.1619863677422705,
                            0.07612708108776735,
                            -0.4008059372396534,
                            -0.3348225054378509,
                            -0.316032906608923,
                            -0.06571125880934843,
                            -0.1237912701420841,
                            -0.18978969923938524,
                            0.44396177076676174,
                            -0.24819286947362304,
                            0.19947365420470667,
                            0.1233230470504993,
                            0.12100410292017981,
                            0.04329661800409075,
                            -0.0038989924858706566,
                            0.20248248645719524,
                            0.05978954546529657,
                            -0.13472513572262218,
                            -0.06026351264457246,
                            -0.31123187803839,
                            -0.5448685096768261,
                            -0.44596062425995003,
                            -0.10929402810651223,
                            0.08935352705530017,
                            -0.06866147857900537
                        ],
                        [
                            0.32497116300751516,
                            0.27778187776252855,
                            -0.26539503529418773,
                            0.17551626015815533,
                            -0.17596316536344012,
                            0.05786034549472036,
                            0.09019869080430558,
                            0.40351958763404766,
                            -0.11375615388918804,
                            0.16873193678204007,
                            0.1334062240850977,
                            0.05083211659879903,
                            0.2640609830958633,
                            0.21744398257740175,
                            0.13179361873584383,
                            -0.16003452258572806,
                            0.2893357825144424,
                            0.2075582771192003,
                            0.26402794533714224,
                            -0.07844273004996996,
                            0.046398122739739055,
                            -0.11308188354253024,
                            -0.16959396343092045,
                            0.06638173028379883,
                            0.08249507225198778,
                            0.2770913845459288,
                            0.24700547693688987,
                            0.1225728929888564,
                            -0.10828215830062532,
                            0.019716489683446463,
                            0.26911082181584306,
                            0.15564503350638587,
                            -0.28893978669150355,
                            -0.01788706218661864,
                            0.18053374635127858,
                            -0.2635266041789119,
                            0.03368663024844573,
                            0.16545505130820984,
                            0.018246114521228086,
                            -0.1961819018010033,
                            -0.24921496391005676,
                            0.07327022683134402,
                            0.12870728336193005,
                            -0.12792246671652588,
                            0.057003055820918046,
                            -0.00738843198888782,
                            0.08888376549952093,
                            0.25506874333759844,
                            0.32156351899881436,
                            -0.0012930509248402172,
                            0.14393646581901157,
                            -0.12237742379780026,
                            0.11673692777477622,
                            0.19755595231118603,
                            -0.16875463290235854,
                            0.2951948708214283,
                            0.08351705649592309,
                            0.1358284941874351,
                            -0.10414229555609475,
                            0.24842914820257544,
                            0.17555155050559298
                        ],
                        [
                            0.35037855886874353,
                            0.12669763597987593,
                            -0.5013363950050909,
                            0.05695522197368919,
                            -0.16755840167163777,
                            0.07195991627410055,
                            -0.05923938035050115,
                            -0.16697218575722056,
                            -0.46271019789400814,
                            0.1048355400513056,
                            -0.005585038860299485,
                            0.004437948390008918,
                            -0.007905229280512793,
                            0.15150293676399207,
                            -0.024342003619252078,
                            -0.11477053127276822,
                            0.45707894946162203,
                            -0.07836621394140764,
                            -0.07203090751074545,
                            0.12990161798503166,
                            0.0532442744037644,
                            0.057722389081975266,
                            0.08568584578218849,
                            -0.04526967384316566,
                            0.2238385034357872,
                            -0.3156947032234421,
                            0.23302898483498102,
                            0.15891629026909104,
                            -0.07888506713868662,
                            0.2448943258751552,
                            -0.0666074850548407,
                            -0.29674578147186204,
                            0.06098986637677538,
                            -0.12905702207254258,
                            0.247573472308739,
                            -0.06632959742421131,
                            0.3326835600003902,
                            0.0068778653772117145,
                            0.36757561098944797,
                            0.3258362872037961,
                            -0.006659819319144116,
                            -0.12192531273762178,
                            0.12034146727227567,
                            -0.1823572939062107,
                            -0.21723825473655733,
                            0.07925424442309977,
                            -0.01251046189827601,
                            -0.08329309956724941,
                            -0.11450234332306927,
                            0.2851236329016183,
                            0.030270831045414576,
                            -0.18305417354028514,
                            0.42200116235468865,
                            0.20383689553311674,
                            0.4054637811438983,
                            -0.008368565653281883,
                            0.19895148810574245,
                            0.07120230388025656,
                            -0.17680993542781212,
                            0.16058095210926385,
                            -0.03457046482876646
                        ],
                        [
                            -0.018754885973802954,
                            -0.11864794251236029,
                            0.23927803335617107,
                            -0.31564844409657977,
                            -0.401212915336287,
                            0.14194717292110445,
                            -0.17472070562761632,
                            -0.20832362848437735,
                            -0.05987243619464849,
                            0.33077534717800294,
                            0.022914885605201493,
                            0.09240130794929802,
                            0.04076516752136327,
                            0.21815986651266267,
                            0.2011577385875282,
                            0.21303698158451448,
                            0.09808539758792778,
                            0.12192523423183589,
                            -0.2846623677687358,
                            -0.061544004488966006,
                            0.2942660398920033,
                            -0.06135988223489367,
                            0.14671238942999296,
                            0.16238535688928557,
                            0.14444540714971355,
                            -0.3085141982176769,
                            0.1859875306027555,
                            0.30730938820928716,
                            -0.15553097627753118,
                            0.017476172875545985,
                            0.07699582267722778,
                            -0.11320196055803732,
                            0.22050919211232528,
                            0.19357740024505782,
                            0.1940569422276767,
                            -0.19114091068521996,
                            0.2530060434124631,
                            0.2793654991901381,
                            0.06298053994690357,
                            0.1695374177147004,
                            0.31270092198275623,
                            -0.07656085679864919,
                            -0.19294245730769516,
                            -0.16526043299035273,
                            -0.24016648895774245,
                            -0.2589797676218182,
                            -0.17480626658625217,
                            -0.010760425488244194,
                            0.21697016533624036,
                            0.18811037231143662,
                            0.3332501976790561,
                            0.07776869513369883,
                            -0.2112414122480766,
                            0.40413412824017525,
                            0.14695423896436735,
                            0.21254976167809336,
                            -0.2186060800326037,
                            0.1035628931472865,
                            0.23377540465168442,
                            0.14456148813560527,
                            -0.11655908061396429
                        ],
                        [
                            0.01757287180079822,
                            -0.07878299921816191,
                            0.3470875264257608,
                            0.1061994261382048,
                            -0.3197488550048745,
                            -0.08303111839773102,
                            0.07863140653384099,
                            -0.035164383703154035,
                            -0.22349296079178857,
                            -0.25392859771416926,
                            0.10700557284761104,
                            0.16032437653288148,
                            0.2303567968748642,
                            0.11317309495234264,
                            -0.04006952554868849,
                            -0.2328481705128355,
                            0.33888372690843,
                            0.30270124680037647,
                            0.028841591961550908,
                            -0.025183236875056046,
                            0.015304058118348179,
                            -0.12492683093566724,
                            0.013790423736133314,
                            0.0321035390239768,
                            -0.19816079125548017,
                            -0.1745731009858392,
                            0.20326098596333778,
                            -0.009708113322927373,
                            -0.07823859372727363,
                            0.11810670539153285,
                            0.09901143454663723,
                            0.1666579635456806,
                            0.21851301993142627,
                            0.19749806721527738,
                            0.05098051794061333,
                            0.27783691908007957,
                            0.16104205683207715,
                            0.21240466941383854,
                            0.2874328103590825,
                            0.2968756654470163,
                            -0.11089246028702156,
                            0.061267572481553054,
                            -0.16212215058083027,
                            -0.17530769750765976,
                            -0.07361541954715581,
                            -0.12962565418545136,
                            -0.20391935352201346,
                            0.08773267238868203,
                            0.13741421332461648,
                            0.08115000366801496,
                            -0.14814800577374007,
                            -0.29853683689626453,
                            -0.09207840428969119,
                            0.11000783923877203,
                            0.20290232220535395,
                            -0.024436800916271584,
                            -6.229069997936318E-5,
                            -0.06638755027893664,
                            0.12808630652082323,
                            -0.2082830946470079,
                            0.0388009626666566
                        ],
                        [
                            0.21246098538310224,
                            0.09304271601963844,
                            0.09042623703780975,
                            0.09674259211244285,
                            0.29141026616208593,
                            0.2577000905766824,
                            -0.11853414724074897,
                            0.08641267568179768,
                            -0.29372196963357666,
                            0.11008586831764638,
                            0.09220510968799403,
                            0.280083495751805,
                            0.28234963495004406,
                            0.2407421260240606,
                            0.030365487431020768,
                            0.03496126766011622,
                            0.086595236487886,
                            0.2831441415869661,
                            -0.10950953199844522,
                            0.24763154771797036,
                            -0.0397559105648547,
                            0.08363046157542312,
                            0.21407835622515148,
                            0.1279998182560858,
                            0.06300943087888432,
                            0.25578861989408264,
                            0.22884009777632947,
                            -0.19569136510453541,
                            -0.0863928563455752,
                            0.09382943579424532,
                            -0.19563225094164968,
                            -0.2395836244013633,
                            -0.18704866411953486,
                            -0.05808925413555331,
                            -0.32097737758833744,
                            0.09027046578305854,
                            -0.1342060945737281,
                            0.10186160553265881,
                            0.14306072255802077,
                            -0.1433911630782656,
                            -0.28172144957897594,
                            -0.09800489760499037,
                            -0.1495009715996661,
                            0.003390270625996588,
                            0.24502166063015743,
                            0.14059054148047884,
                            -0.16910442984753216,
                            -0.06485759093157875,
                            0.10012351674036907,
                            0.4242239928650652,
                            -0.05732442299851246,
                            -0.004435290352335378,
                            0.12239323056703975,
                            -0.03364271413037445,
                            0.13042701027725945,
                            0.038091947390122755,
                            -0.263672575859465,
                            -0.040954688509755824,
                            0.1317791369744189,
                            -0.05133398331046866,
                            -0.2792232814311539
                        ],
                        [
                            0.1276745440973949,
                            0.01679500809151114,
                            -0.31362038066104564,
                            -0.07083148817912858,
                            -0.0681291222204478,
                            -0.30120338226641113,
                            0.20667110697479263,
                            -0.1325461855565351,
                            -0.0871255943899006,
                            0.06000932723621946,
                            0.11538484462009647,
                            0.09989967592451027,
                            0.17713164317998598,
                            0.07757037292825983,
                            -0.06214744499113048,
                            0.020201194729476186,
                            -0.2549968109606767,
                            -0.28379382001532133,
                            0.340564624265205,
                            -0.1089723600927571,
                            0.19686557540637292,
                            0.005576358906649518,
                            -0.08643579515859885,
                            0.18814402413991435,
                            -0.27282279108869223,
                            0.21860521515336004,
                            -0.24261544016712727,
                            -0.0415957609321903,
                            0.031564147424816426,
                            -0.10902635921079473,
                            -0.038207412592779134,
                            -0.015046833643117917,
                            -0.22025551455110395,
                            -0.0019632645529699053,
                            0.046469904984355666,
                            -0.22469976593131846,
                            -0.30827594277543113,
                            -0.036780067422500416,
                            -0.25075430172160124,
                            0.16419759567488507,
                            -0.11711308203744455,
                            -0.168494149426589,
                            -0.17750186728835468,
                            0.12218510580724756,
                            0.009799232862560878,
                            -0.3737587611956654,
                            -0.1187763112736262,
                            -0.4082762955118865,
                            -0.143280332310058,
                            0.08149448759960065,
                            0.3474562666426415,
                            -0.4265868396533738,
                            -0.36049482029755997,
                            -0.26843116535232703,
                            -0.20568887377123207,
                            0.13981247174571979,
                            0.09070457844483046,
                            0.17999634370920742,
                            -0.02450167653607919,
                            0.06497775223495168,
                            0.06392825534603172
                        ],
                        [
                            0.31524575469756955,
                            -0.19740047786811635,
                            0.026071835242834823,
                            -0.15814255610802366,
                            0.3876218575068427,
                            0.2181984408932431,
                            -0.06095495750719784,
                            0.3379833430394145,
                            0.328987764578983,
                            -0.25033047433960476,
                            0.014552394798197841,
                            -0.16681830032261902,
                            -0.29232932905847453,
                            -0.11186141751833747,
                            0.11756570731344876,
                            -0.25209550726395163,
                            0.5404837746913042,
                            0.21132767241110104,
                            -0.12577045895908479,
                            0.15059670301136174,
                            0.16165379119691425,
                            -0.08581341239464109,
                            -0.3271469324476946,
                            0.2148961237998259,
                            0.2641695690481578,
                            -0.24315072348987035,
                            0.16824320203256243,
                            0.011403235698239212,
                            -0.15498484541176713,
                            0.2743468431889727,
                            0.25681064079584703,
                            -0.20147287771320493,
                            -0.22627987625407894,
                            0.28450552617852465,
                            0.36883991399973615,
                            0.1266377540463853,
                            0.09284898189910545,
                            0.06213761594258249,
                            -0.02390340470060182,
                            -0.3798995127729135,
                            0.011232927910157472,
                            0.002182655078491155,
                            0.0565497472605366,
                            0.36864493498199813,
                            0.19342947400418575,
                            0.37769711812120094,
                            0.31537621946846717,
                            0.10795619105543273,
                            -0.23871295301607148,
                            0.13642746190224342,
                            -0.15650523107615819,
                            0.16267289209587216,
                            0.19970463834353935,
                            -0.011751835910718825,
                            0.2882257787376203,
                            -0.12745919592552185,
                            -0.006367496092066471,
                            0.18037603130684557,
                            0.10876524330893847,
                            -0.13252256296485937,
                            0.12569688032167822
                        ],
                        [
                            0.027642320205330445,
                            0.1039004786795949,
                            0.2072614728393674,
                            -0.05248846385252616,
                            0.1852764664309525,
                            0.08683702682497117,
                            -0.03736140533278562,
                            -0.16325742117572034,
                            -0.04850369827717993,
                            0.052989135093033365,
                            -0.2192590138212296,
                            -0.0876012538933188,
                            0.29882128241217865,
                            0.1344377172179174,
                            -0.10466333693848628,
                            -0.30898480439172576,
                            0.06273926277890214,
                            0.1057339310061771,
                            -0.14077105943702317,
                            0.022016419395989032,
                            -0.053622066702926255,
                            -0.0940472702671594,
                            -0.25416830241521765,
                            0.11149769909232163,
                            0.2066430217986978,
                            0.2299565158104404,
                            -0.041328316032675214,
                            -0.18856803531911862,
                            -0.16170343731026007,
                            -0.09881229825689714,
                            -0.2608984728561993,
                            -0.0466644508321999,
                            -0.3537624138455923,
                            -0.21044978329535946,
                            0.07525906825882933,
                            -0.2705175342405473,
                            -0.11392509316464844,
                            -0.1032403118402718,
                            0.17533729761709266,
                            -0.05574509354154171,
                            0.07193858664572123,
                            -2.1155525083740696E-4,
                            -0.06682174280345089,
                            0.15177293497654817,
                            -0.04651517755290369,
                            -0.12831478436164523,
                            -0.061818825312633316,
                            -0.15880801592698096,
                            0.01306323356293195,
                            0.3106944675296924,
                            0.24137360164495866,
                            0.06111706320316696,
                            0.16330409529960463,
                            0.009992086680507252,
                            -0.12992003956749257,
                            -0.05253571995358725,
                            -0.12514783559028764,
                            0.013726768783922406,
                            -0.08902389515265598,
                            -0.06342432049190194,
                            -0.219283733486722
                        ],
                        [
                            -0.5507695221430486,
                            0.24556287856833336,
                            0.224463945586062,
                            -0.41604165418040046,
                            -0.5023662183807304,
                            0.25933161763891394,
                            -0.2542465452462859,
                            0.06870294107708307,
                            0.1720587699489664,
                            0.27915248747843485,
                            -0.33398277884017236,
                            -0.11064320848978268,
                            -0.05470575935590957,
                            -0.06842469316742622,
                            -0.25396813638925986,
                            -0.1652747921442752,
                            -0.16477355383103928,
                            0.03814968375921767,
                            -0.06634529066576617,
                            -0.16965317356417045,
                            -0.12857910556864705,
                            -0.15035269278198357,
                            -0.36839402147173056,
                            -0.14206549859385292,
                            -0.0954340792500928,
                            -0.2044647081328279,
                            0.31147229098770207,
                            0.47906020478452777,
                            0.22384414950199344,
                            -0.04085384495651595,
                            -0.06971369440652397,
                            0.2716888784390641,
                            0.17421805968136095,
                            0.25587855703364365,
                            -0.24631206727773888,
                            -0.02639118580800795,
                            -0.006134206749994062,
                            -0.1904313246353854,
                            -0.02162948874664599,
                            0.26011535249093165,
                            0.2950929259476479,
                            -0.16377172701697035,
                            -0.018816854961974626,
                            -0.1814029409271104,
                            0.21197240838782472,
                            0.47759220286380905,
                            0.5592449915764608,
                            0.25187858395984053,
                            0.36236099522328896,
                            0.2338753691438335,
                            0.06349962011474947,
                            0.4082644984922453,
                            -0.24848689136003058,
                            0.016788666502923173,
                            -0.0013165630704022712,
                            0.1359451927150389,
                            0.44507296138455965,
                            0.04875959472124831,
                            0.1471072141778887,
                            -0.0995024077639528,
                            -0.01771649738183307
                        ],
                        [
                            0.055100723200754265,
                            0.014027414814608358,
                            0.09572953150626862,
                            0.019103258924780063,
                            -0.07481284582569593,
                            -0.04004094224698299,
                            0.16608473835794485,
                            0.22153676612009482,
                            0.26175768992821513,
                            0.24426221524671354,
                            0.2711324257695216,
                            0.1960146334457743,
                            0.04596428868083847,
                            -0.06307579856129689,
                            -0.1293256412696033,
                            0.11844357416996174,
                            0.21225932897047556,
                            0.24638072797818775,
                            0.09959639974546756,
                            0.1299471875111772,
                            0.15744404179694352,
                            -0.1576442521151349,
                            0.17223946646746754,
                            -0.039350245487470285,
                            0.3041566532769871,
                            0.3586704383019129,
                            -0.16128091561771146,
                            0.023153925952104273,
                            0.2611922809607624,
                            0.29248509466196554,
                            0.3005386313699271,
                            0.18016612888293854,
                            -0.08155231589501696,
                            -0.03681985814201697,
                            0.2804967039114944,
                            -0.14316979844652566,
                            0.07862767921176944,
                            -0.29062819227600784,
                            0.015039049569724764,
                            0.2572341836636454,
                            0.186522384880427,
                            -0.18219396814591407,
                            0.0529640412429198,
                            0.435408612875374,
                            -0.2330207913229491,
                            0.15683683161230658,
                            0.08270967166075975,
                            -0.20948070265363655,
                            0.048378189378998834,
                            -0.11801336749647746,
                            -0.21043284259754852,
                            0.058250619282976354,
                            0.04166961397030116,
                            0.27232547266139867,
                            -0.19325236925829462,
                            -0.010760268194029489,
                            0.018857567478972093,
                            0.1097731949431413,
                            -0.053309744449291256,
                            -0.14211411253829956,
                            -0.19144708499581495
                        ],
                        [
                            -0.15890471369105766,
                            0.21623965064842318,
                            0.26308833486565353,
                            -0.03398872051857082,
                            0.022355619032110946,
                            -0.33267086699001874,
                            -0.22523754837288787,
                            -0.05068586721180094,
                            -0.269435576351703,
                            0.13904804225918888,
                            -0.2192965669056124,
                            0.359704633592009,
                            0.2338106642804261,
                            0.25733048044302026,
                            -0.052285506290813286,
                            0.22295098083676168,
                            -0.0716315981627824,
                            0.09039856405763844,
                            0.002565626479400987,
                            0.19139940263396107,
                            0.1648065973792879,
                            0.25561250119942913,
                            -0.011437121985081278,
                            -0.22212991409014665,
                            0.22689249846727616,
                            0.34128466856049977,
                            -0.25520110940022905,
                            0.23362680247947415,
                            -0.2284307407055361,
                            -0.1659045812155378,
                            -0.21436118452109393,
                            -0.31712099645340347,
                            0.0014029397737270975,
                            -0.0607354996679132,
                            -0.2033287748385387,
                            -0.1156453277032907,
                            -0.20037659754633277,
                            -0.15717834888664928,
                            -0.25403100345839047,
                            -0.12326651220657536,
                            -0.13572845897544777,
                            0.09159941323540843,
                            -0.03355150523154209,
                            0.16445263070394642,
                            -0.07814719581304466,
                            -0.11526105991124974,
                            0.1692700939089306,
                            -0.06732520988673159,
                            0.25823197180336177,
                            0.1480269735354085,
                            -0.23205569784682856,
                            -0.06901226167073926,
                            0.24699171455979674,
                            -0.12306323505579314,
                            0.238357384557729,
                            -0.24448178259814718,
                            -0.2790640570501805,
                            0.16964474580820332,
                            0.20963421595640605,
                            0.20456692216022027,
                            0.1299335069273208
                        ],
                        [
                            -0.24597896072257766,
                            0.1891791116576526,
                            -0.029277119592095054,
                            0.04674165109619231,
                            0.05119105331046231,
                            -0.09636520732597709,
                            0.14942426890692273,
                            0.36152990397466017,
                            0.022717816547515462,
                            0.12530462978834817,
                            -0.13456650093426212,
                            -0.13332583836530487,
                            -0.224335894051877,
                            0.17407874322169015,
                            -0.33101817967474223,
                            0.10025906276771336,
                            0.27810178681861714,
                            0.009997462498045945,
                            -0.020472921255427823,
                            -0.10143747501011732,
                            0.15040206091276015,
                            0.035861897107247416,
                            0.294068960546332,
                            0.05059800271232104,
                            0.1450657257904382,
                            0.08095120972472486,
                            0.13556272575441983,
                            0.15865437091098272,
                            -0.24973046285137998,
                            0.028652825366161743,
                            -0.21197836274439733,
                            -9.97615509426545E-4,
                            0.11167851539901813,
                            0.18827696012294157,
                            -0.17774675059755352,
                            -0.4603975540729741,
                            -0.058868574957849806,
                            -0.20761971744008975,
                            -0.5775577843395495,
                            -0.18292874527655326,
                            -0.06524508433660771,
                            -0.3207053997823759,
                            0.14203894314338278,
                            -0.029353818053989927,
                            0.14962046232617096,
                            0.3770748897435777,
                            0.2784980384723625,
                            -0.025928167874586565,
                            0.06318927943540244,
                            -0.14228429232460235,
                            -0.3440108328724946,
                            0.23445874550285192,
                            0.3095867852307231,
                            -0.04429600497887051,
                            -0.10583778637042285,
                            -0.1674897351237955,
                            -0.08954701393953045,
                            -0.270735229726092,
                            -0.17509200093515928,
                            -0.21054864893140202,
                            -0.2923186820417022
                        ],
                        [
                            0.07404156669882846,
                            0.0885274618640928,
                            -0.13434606887273795,
                            -0.37791018875651006,
                            0.019898144103551146,
                            -0.34667973934581936,
                            0.03312749803017913,
                            0.09031469582154938,
                            -0.31179971853194943,
                            0.1496888682307925,
                            -0.12250351147907398,
                            -0.18276450009773354,
                            0.14573296770773395,
                            -0.1577189598467597,
                            -0.02092608154001633,
                            -0.15413641902867092,
                            0.13229765037050276,
                            0.1899587434347129,
                            0.04542887953440592,
                            0.25697453007199433,
                            -0.044465903494042516,
                            -0.19979063222115448,
                            0.22894882627873428,
                            0.14087530084362174,
                            0.01291888337454819,
                            -0.3149599613433846,
                            -0.06135814447368865,
                            0.06111551153801382,
                            -0.25021238774806087,
                            0.47263536605541173,
                            -0.10140183316257115,
                            -0.1205340429808742,
                            0.15754010794604176,
                            0.3008819015506601,
                            0.36276548040755197,
                            -0.02105855510544133,
                            0.017661795729073795,
                            -0.04515215174192613,
                            0.07298794115865954,
                            -0.06039232288232208,
                            0.12753998112387685,
                            0.08285492807719126,
                            -0.060080883780392315,
                            -0.20181944992616108,
                            0.3908825032518689,
                            -0.2063299939967336,
                            0.34998328547660384,
                            0.25415413553541705,
                            -0.00681713373250358,
                            -0.059508641417602384,
                            0.03193798324296732,
                            3.67432142470092E-4,
                            0.35272276017946025,
                            0.2900326191076432,
                            0.08533709214308946,
                            0.1712789603076337,
                            0.18695056588462045,
                            0.34201860635434284,
                            0.25460339221897543,
                            0.056347841587632966,
                            0.08950458395082836
                        ],
                        [
                            0.05413946659215213,
                            -0.20527872936862554,
                            -0.16293556320266975,
                            -0.12638566710469387,
                            -0.2932205276964865,
                            0.016892282596519433,
                            -0.04101572455090565,
                            -0.22726146524722013,
                            -0.2830186259913642,
                            0.012179972099550488,
                            -0.19282349025794313,
                            -0.0904063295469785,
                            -0.15061677140031784,
                            0.040319256318944494,
                            0.3380911888487642,
                            -0.2894743811364873,
                            -0.03874515626286721,
                            0.11800619092064057,
                            -0.2786456529566743,
                            0.10654611912739229,
                            0.1284710617992785,
                            0.154562026707549,
                            -0.05888749714857644,
                            0.0033869841020996013,
                            0.012552323873173062,
                            0.0809255785182924,
                            0.13063326798453073,
                            -0.22241615863113276,
                            -0.11496841310956332,
                            0.0048999712403495115,
                            0.2168984648156699,
                            -0.012093071134077628,
                            0.07574090169688667,
                            0.10106151262313295,
                            -0.001285058936657585,
                            0.17008358393573714,
                            -0.175719626769359,
                            -0.06539341910897734,
                            0.1619278148834552,
                            -0.15937614822247007,
                            0.2021575141713735,
                            -0.03462769811839338,
                            -0.16839794233862976,
                            0.025949138744363172,
                            0.07524603724763185,
                            0.12525559745478734,
                            0.22331273307682303,
                            -0.11486916322171088,
                            -0.21843799299085906,
                            0.09438728058132059,
                            -0.23581507837683194,
                            0.03256116534970212,
                            -0.013619330515493877,
                            -0.021900698612148196,
                            -0.18217587123597406,
                            -0.21658254184862152,
                            -0.031709574869604816,
                            -0.18025554195515792,
                            -0.08221989309611002,
                            -0.2282218997896275,
                            -0.07744843212694653
                        ],
                        [
                            -0.228964664546462,
                            -0.02943265934919409,
                            0.5271337750054913,
                            0.3890451109424546,
                            -0.32565798753991226,
                            -0.0038882987009093745,
                            0.037943196957681474,
                            0.1823911506249542,
                            0.1556662425198611,
